{"genome": {"W1": [[0.07675029815924914, -0.12218843436937439, 0.4324267095466109, 0.06568458917450615, -0.02641746837960439], [-0.33486407883890024, -0.8269968715244166, 0.42295913045131167, -0.19787154631868042, -1.0562230625635092], [-0.09170358864733208, 0.7605825133775004, -0.0454945937779523, -1.3809576729698825, 0.2564234986313479], [-0.7664999626488068, 0.0614039217726869, -0.045303801961249, 0.5607205326218081, -0.1054195850291326], [-0.29454963882087626, -0.4975151027049246, -1.248136367109484, -0.748534277625022, -0.491733500415233], [-0.8340399418139581, 0.28002768130614136, 0.6763597164297456, 0.0460108587020143, 0.5648426618730281]], "b1": [-0.4877825790736269, 0.4402868890217258, -0.6853250926572269, 0.13455644954525606, -0.34482595605617244, -0.3507207483149066], "W2": [[-0.3756197136286445, 0.25796285579904976, -0.7919645883533598, -0.03832467221432649, 0.003449131217377092, 0.7794470134016048], [0.334563668821686, -0.22147093578696975, 0.11416960136331714, -0.08031634438608737, -0.6073574847293853, -0.24537501317511973]], "b2": [-0.6509476135386736, -0.22711097088402168]}, "color": [117, 9, 124], "left_wheel_size": 10, "right_wheel_size": 6, "name": "Orange Comet"}